digraph Tree {
node [shape=box, style="filled, rounded", color="black", fontname=helvetica] ;
edge [fontname=helvetica] ;
0 [label=<TIPO_PACIENTE &le; 1.5<br/>entropy = 0.335<br/>samples = 879608<br/>value = [54401, 825207]<br/>class = NO SOBREVIVE>, fillcolor="#46a3e7"] ;
1 [label=<EDAD &le; 55.5<br/>entropy = 0.067<br/>samples = 705959<br/>value = [5593, 700366]<br/>class = NO SOBREVIVE>, fillcolor="#3b9ee5"] ;
0 -> 1 [labeldistance=2.5, labelangle=45, headlabel="True"] ;
2 [label=<RESULTADO &le; 1.5<br/>entropy = 0.032<br/>samples = 604668<br/>value = [1980, 602688]<br/>class = NO SOBREVIVE>, fillcolor="#3a9de5"] ;
1 -> 2 ;
3 [label=<EDAD &le; 42.5<br/>entropy = 0.062<br/>samples = 222906<br/>value = [1629, 221277]<br/>class = NO SOBREVIVE>, fillcolor="#3a9ee5"] ;
2 -> 3 ;
4 [label=<OBESIDAD &le; 1.5<br/>entropy = 0.031<br/>samples = 150934<br/>value = [483, 150451]<br/>class = NO SOBREVIVE>, fillcolor="#3a9de5"] ;
3 -> 4 ;
5 [label=<entropy = 0.062<br/>samples = 22804<br/>value = [164, 22640]<br/>class = NO SOBREVIVE>, fillcolor="#3a9ee5"] ;
4 -> 5 ;
6 [label=<entropy = 0.025<br/>samples = 128130<br/>value = [319, 127811]<br/>class = NO SOBREVIVE>, fillcolor="#399de5"] ;
4 -> 6 ;
7 [label=<SEXO &le; 1.5<br/>entropy = 0.118<br/>samples = 71972<br/>value = [1146, 70826]<br/>class = NO SOBREVIVE>, fillcolor="#3c9fe5"] ;
3 -> 7 ;
8 [label=<entropy = 0.076<br/>samples = 36080<br/>value = [335, 35745]<br/>class = NO SOBREVIVE>, fillcolor="#3b9ee5"] ;
7 -> 8 ;
9 [label=<entropy = 0.156<br/>samples = 35892<br/>value = [811, 35081]<br/>class = NO SOBREVIVE>, fillcolor="#3e9fe6"] ;
7 -> 9 ;
10 [label=<EDAD &le; 42.5<br/>entropy = 0.011<br/>samples = 381762<br/>value = [351, 381411]<br/>class = NO SOBREVIVE>, fillcolor="#399de5"] ;
2 -> 10 ;
11 [label=<SEXO &le; 1.5<br/>entropy = 0.006<br/>samples = 272632<br/>value = [142, 272490]<br/>class = NO SOBREVIVE>, fillcolor="#399de5"] ;
10 -> 11 ;
12 [label=<entropy = 0.004<br/>samples = 146316<br/>value = [44, 146272]<br/>class = NO SOBREVIVE>, fillcolor="#399de5"] ;
11 -> 12 ;
13 [label=<entropy = 0.009<br/>samples = 126316<br/>value = [98, 126218]<br/>class = NO SOBREVIVE>, fillcolor="#399de5"] ;
11 -> 13 ;
14 [label=<SEXO &le; 1.5<br/>entropy = 0.02<br/>samples = 109130<br/>value = [209, 108921]<br/>class = NO SOBREVIVE>, fillcolor="#399de5"] ;
10 -> 14 ;
15 [label=<entropy = 0.015<br/>samples = 60854<br/>value = [83, 60771]<br/>class = NO SOBREVIVE>, fillcolor="#399de5"] ;
14 -> 15 ;
16 [label=<entropy = 0.026<br/>samples = 48276<br/>value = [126, 48150]<br/>class = NO SOBREVIVE>, fillcolor="#3a9de5"] ;
14 -> 16 ;
17 [label=<RESULTADO &le; 1.5<br/>entropy = 0.222<br/>samples = 101291<br/>value = [3613, 97678]<br/>class = NO SOBREVIVE>, fillcolor="#40a1e6"] ;
1 -> 17 ;
18 [label=<EDAD &le; 66.5<br/>entropy = 0.362<br/>samples = 43575<br/>value = [3009, 40566]<br/>class = NO SOBREVIVE>, fillcolor="#48a4e7"] ;
17 -> 18 ;
19 [label=<SEXO &le; 1.5<br/>entropy = 0.272<br/>samples = 29197<br/>value = [1364, 27833]<br/>class = NO SOBREVIVE>, fillcolor="#43a2e6"] ;
18 -> 19 ;
20 [label=<entropy = 0.208<br/>samples = 14198<br/>value = [466, 13732]<br/>class = NO SOBREVIVE>, fillcolor="#40a0e6"] ;
19 -> 20 ;
21 [label=<entropy = 0.327<br/>samples = 14999<br/>value = [898, 14101]<br/>class = NO SOBREVIVE>, fillcolor="#46a3e7"] ;
19 -> 21 ;
22 [label=<SEXO &le; 1.5<br/>entropy = 0.513<br/>samples = 14378<br/>value = [1645, 12733]<br/>class = NO SOBREVIVE>, fillcolor="#53aae8"] ;
18 -> 22 ;
23 [label=<entropy = 0.431<br/>samples = 6892<br/>value = [610, 6282]<br/>class = NO SOBREVIVE>, fillcolor="#4ca7e8"] ;
22 -> 23 ;
24 [label=<entropy = 0.58<br/>samples = 7486<br/>value = [1035, 6451]<br/>class = NO SOBREVIVE>, fillcolor="#59ade9"] ;
22 -> 24 ;
25 [label=<EDAD &le; 70.5<br/>entropy = 0.084<br/>samples = 57716<br/>value = [604, 57112]<br/>class = NO SOBREVIVE>, fillcolor="#3b9ee5"] ;
17 -> 25 ;
26 [label=<EDAD &le; 62.5<br/>entropy = 0.061<br/>samples = 45929<br/>value = [324, 45605]<br/>class = NO SOBREVIVE>, fillcolor="#3a9ee5"] ;
25 -> 26 ;
27 [label=<entropy = 0.047<br/>samples = 30245<br/>value = [156, 30089]<br/>class = NO SOBREVIVE>, fillcolor="#3a9ee5"] ;
26 -> 27 ;
28 [label=<entropy = 0.085<br/>samples = 15684<br/>value = [168, 15516]<br/>class = NO SOBREVIVE>, fillcolor="#3b9ee5"] ;
26 -> 28 ;
29 [label=<EDAD &le; 77.5<br/>entropy = 0.162<br/>samples = 11787<br/>value = [280, 11507]<br/>class = NO SOBREVIVE>, fillcolor="#3e9fe6"] ;
25 -> 29 ;
30 [label=<entropy = 0.132<br/>samples = 6402<br/>value = [117, 6285]<br/>class = NO SOBREVIVE>, fillcolor="#3d9fe5"] ;
29 -> 30 ;
31 [label=<entropy = 0.196<br/>samples = 5385<br/>value = [163, 5222]<br/>class = NO SOBREVIVE>, fillcolor="#3fa0e6"] ;
29 -> 31 ;
32 [label=<EDAD &le; 49.5<br/>entropy = 0.857<br/>samples = 173649<br/>value = [48808, 124841]<br/>class = NO SOBREVIVE>, fillcolor="#86c3ef"] ;
0 -> 32 [labeldistance=2.5, labelangle=-45, headlabel="False"] ;
33 [label=<RESULTADO &le; 1.5<br/>entropy = 0.606<br/>samples = 65573<br/>value = [9727, 55846]<br/>class = NO SOBREVIVE>, fillcolor="#5baeea"] ;
32 -> 33 ;
34 [label=<EDAD &le; 37.5<br/>entropy = 0.728<br/>samples = 34897<br/>value = [7089, 27808]<br/>class = NO SOBREVIVE>, fillcolor="#6bb6ec"] ;
33 -> 34 ;
35 [label=<OBESIDAD &le; 1.5<br/>entropy = 0.566<br/>samples = 13420<br/>value = [1788, 11632]<br/>class = NO SOBREVIVE>, fillcolor="#57ace9"] ;
34 -> 35 ;
36 [label=<entropy = 0.706<br/>samples = 2970<br/>value = [571, 2399]<br/>class = NO SOBREVIVE>, fillcolor="#68b4eb"] ;
35 -> 36 ;
37 [label=<entropy = 0.519<br/>samples = 10450<br/>value = [1217, 9233]<br/>class = NO SOBREVIVE>, fillcolor="#53aae8"] ;
35 -> 37 ;
38 [label=<OBESIDAD &le; 1.5<br/>entropy = 0.806<br/>samples = 21477<br/>value = [5301, 16176]<br/>class = NO SOBREVIVE>, fillcolor="#7abdee"] ;
34 -> 38 ;
39 [label=<entropy = 0.871<br/>samples = 5938<br/>value = [1733, 4205]<br/>class = NO SOBREVIVE>, fillcolor="#8bc5f0"] ;
38 -> 39 ;
40 [label=<entropy = 0.777<br/>samples = 15539<br/>value = [3568, 11971]<br/>class = NO SOBREVIVE>, fillcolor="#74baed"] ;
38 -> 40 ;
41 [label=<EDAD &le; 37.5<br/>entropy = 0.423<br/>samples = 30676<br/>value = [2638, 28038]<br/>class = NO SOBREVIVE>, fillcolor="#4ca6e7"] ;
33 -> 41 ;
42 [label=<SEXO &le; 1.5<br/>entropy = 0.348<br/>samples = 18535<br/>value = [1209, 17326]<br/>class = NO SOBREVIVE>, fillcolor="#47a4e7"] ;
41 -> 42 ;
43 [label=<entropy = 0.286<br/>samples = 8879<br/>value = [444, 8435]<br/>class = NO SOBREVIVE>, fillcolor="#43a2e6"] ;
42 -> 43 ;
44 [label=<entropy = 0.399<br/>samples = 9656<br/>value = [765, 8891]<br/>class = NO SOBREVIVE>, fillcolor="#4aa5e7"] ;
42 -> 44 ;
45 [label=<SEXO &le; 1.5<br/>entropy = 0.523<br/>samples = 12141<br/>value = [1429, 10712]<br/>class = NO SOBREVIVE>, fillcolor="#53aae8"] ;
41 -> 45 ;
46 [label=<entropy = 0.442<br/>samples = 4974<br/>value = [456, 4518]<br/>class = NO SOBREVIVE>, fillcolor="#4da7e8"] ;
45 -> 46 ;
47 [label=<entropy = 0.573<br/>samples = 7167<br/>value = [973, 6194]<br/>class = NO SOBREVIVE>, fillcolor="#58ace9"] ;
45 -> 47 ;
48 [label=<RESULTADO &le; 1.5<br/>entropy = 0.944<br/>samples = 108076<br/>value = [39081, 68995]<br/>class = NO SOBREVIVE>, fillcolor="#a9d5f4"] ;
32 -> 48 ;
49 [label=<EDAD &le; 64.5<br/>entropy = 0.988<br/>samples = 69334<br/>value = [30181, 39153]<br/>class = NO SOBREVIVE>, fillcolor="#d2e9f9"] ;
48 -> 49 ;
50 [label=<EDAD &le; 55.5<br/>entropy = 0.952<br/>samples = 37297<br/>value = [13864, 23433]<br/>class = NO SOBREVIVE>, fillcolor="#aed7f4"] ;
49 -> 50 ;
51 [label=<entropy = 0.915<br/>samples = 14642<br/>value = [4827, 9815]<br/>class = NO SOBREVIVE>, fillcolor="#9acdf2"] ;
50 -> 51 ;
52 [label=<entropy = 0.97<br/>samples = 22655<br/>value = [9037, 13618]<br/>class = NO SOBREVIVE>, fillcolor="#bcdef6"] ;
50 -> 52 ;
53 [label=<EDAD &le; 75.5<br/>entropy = 1.0<br/>samples = 32037<br/>value = [16317, 15720]<br/>class = SOBREVIVE>, fillcolor="#fefaf8"] ;
49 -> 53 ;
54 [label=<entropy = 0.999<br/>samples = 20795<br/>value = [10067, 10728]<br/>class = NO SOBREVIVE>, fillcolor="#f3f9fd"] ;
53 -> 54 ;
55 [label=<entropy = 0.991<br/>samples = 11242<br/>value = [6250, 4992]<br/>class = SOBREVIVE>, fillcolor="#fae6d7"] ;
53 -> 55 ;
56 [label=<EDAD &le; 60.5<br/>entropy = 0.778<br/>samples = 38742<br/>value = [8900, 29842]<br/>class = NO SOBREVIVE>, fillcolor="#74baed"] ;
48 -> 56 ;
57 [label=<RESULTADO &le; 2.5<br/>entropy = 0.684<br/>samples = 13903<br/>value = [2526, 11377]<br/>class = NO SOBREVIVE>, fillcolor="#65b3eb"] ;
56 -> 57 ;
58 [label=<entropy = 0.718<br/>samples = 10249<br/>value = [2028, 8221]<br/>class = NO SOBREVIVE>, fillcolor="#6ab5eb"] ;
57 -> 58 ;
59 [label=<entropy = 0.574<br/>samples = 3654<br/>value = [498, 3156]<br/>class = NO SOBREVIVE>, fillcolor="#58ace9"] ;
57 -> 59 ;
60 [label=<RESULTADO &le; 2.5<br/>entropy = 0.822<br/>samples = 24839<br/>value = [6374, 18465]<br/>class = NO SOBREVIVE>, fillcolor="#7dbfee"] ;
56 -> 60 ;
61 [label=<entropy = 0.848<br/>samples = 18674<br/>value = [5125, 13549]<br/>class = NO SOBREVIVE>, fillcolor="#84c2ef"] ;
60 -> 61 ;
62 [label=<entropy = 0.727<br/>samples = 6165<br/>value = [1249, 4916]<br/>class = NO SOBREVIVE>, fillcolor="#6bb6ec"] ;
60 -> 62 ;
}
